digraph Tree {
node [shape=box] ;
0 [label="sex=female <= 0.5\ngini = 0.455\nsamples = 984\nvalue = [639, 345]"] ;
1 [label="age <= 13.5\ngini = 0.279\nsamples = 627\nvalue = [522, 105]"] ;
0 -> 1 [labeldistance=2.5, labelangle=45, headlabel="True"] ;
2 [label="pclass=3rd <= 0.5\ngini = 0.413\nsamples = 24\nvalue = [7, 17]"] ;
1 -> 2 ;
3 [label="gini = 0.0\nsamples = 12\nvalue = [0, 12]"] ;
2 -> 3 ;
4 [label="age <= 3.5\ngini = 0.486\nsamples = 12\nvalue = [7, 5]"] ;
2 -> 4 ;
5 [label="age <= 0.583\ngini = 0.375\nsamples = 4\nvalue = [1, 3]"] ;
4 -> 5 ;
6 [label="gini = 0.0\nsamples = 1\nvalue = [1, 0]"] ;
5 -> 6 ;
7 [label="gini = 0.0\nsamples = 3\nvalue = [0, 3]"] ;
5 -> 7 ;
8 [label="age <= 7.5\ngini = 0.375\nsamples = 8\nvalue = [6, 2]"] ;
4 -> 8 ;
9 [label="gini = 0.0\nsamples = 3\nvalue = [3, 0]"] ;
8 -> 9 ;
10 [label="age <= 11.0\ngini = 0.48\nsamples = 5\nvalue = [3, 2]"] ;
8 -> 10 ;
11 [label="gini = 0.5\nsamples = 4\nvalue = [2, 2]"] ;
10 -> 11 ;
12 [label="gini = 0.0\nsamples = 1\nvalue = [1, 0]"] ;
10 -> 12 ;
13 [label="pclass=1st <= 0.5\ngini = 0.249\nsamples = 603\nvalue = [515, 88]"] ;
1 -> 13 ;
14 [label="age <= 45.5\ngini = 0.173\nsamples = 482\nvalue = [436, 46]"] ;
13 -> 14 ;
15 [label="age <= 44.5\ngini = 0.177\nsamples = 469\nvalue = [423, 46]"] ;
14 -> 15 ;
16 [label="age <= 18.5\ngini = 0.174\nsamples = 467\nvalue = [422, 45]"] ;
15 -> 16 ;
17 [label="gini = 0.0\nsamples = 12\nvalue = [12, 0]"] ;
16 -> 17 ;
18 [label="age <= 20.5\ngini = 0.178\nsamples = 455\nvalue = [410, 45]"] ;
16 -> 18 ;
19 [label="pclass=2nd <= 0.5\ngini = 0.32\nsamples = 15\nvalue = [12, 3]"] ;
18 -> 19 ;
20 [label="age <= 19.5\ngini = 0.298\nsamples = 11\nvalue = [9, 2]"] ;
19 -> 20 ;
21 [label="gini = 0.32\nsamples = 5\nvalue = [4, 1]"] ;
20 -> 21 ;
22 [label="gini = 0.278\nsamples = 6\nvalue = [5, 1]"] ;
20 -> 22 ;
23 [label="age <= 19.5\ngini = 0.375\nsamples = 4\nvalue = [3, 1]"] ;
19 -> 23 ;
24 [label="gini = 0.0\nsamples = 1\nvalue = [1, 0]"] ;
23 -> 24 ;
25 [label="gini = 0.444\nsamples = 3\nvalue = [2, 1]"] ;
23 -> 25 ;
26 [label="age <= 21.5\ngini = 0.173\nsamples = 440\nvalue = [398, 42]"] ;
18 -> 26 ;
27 [label="gini = 0.0\nsamples = 9\nvalue = [9, 0]"] ;
26 -> 27 ;
28 [label="age <= 25.5\ngini = 0.176\nsamples = 431\nvalue = [389, 42]"] ;
26 -> 28 ;
29 [label="age <= 23.5\ngini = 0.251\nsamples = 34\nvalue = [29, 5]"] ;
28 -> 29 ;
30 [label="pclass=2nd <= 0.5\ngini = 0.198\nsamples = 18\nvalue = [16, 2]"] ;
29 -> 30 ;
31 [label="age <= 22.5\ngini = 0.18\nsamples = 10\nvalue = [9, 1]"] ;
30 -> 31 ;
32 [label="gini = 0.0\nsamples = 6\nvalue = [6, 0]"] ;
31 -> 32 ;
33 [label="gini = 0.375\nsamples = 4\nvalue = [3, 1]"] ;
31 -> 33 ;
34 [label="age <= 22.5\ngini = 0.219\nsamples = 8\nvalue = [7, 1]"] ;
30 -> 34 ;
35 [label="gini = 0.444\nsamples = 3\nvalue = [2, 1]"] ;
34 -> 35 ;
36 [label="gini = 0.0\nsamples = 5\nvalue = [5, 0]"] ;
34 -> 36 ;
37 [label="age <= 24.5\ngini = 0.305\nsamples = 16\nvalue = [13, 3]"] ;
29 -> 37 ;
38 [label="pclass=2nd <= 0.5\ngini = 0.346\nsamples = 9\nvalue = [7, 2]"] ;
37 -> 38 ;
39 [label="gini = 0.278\nsamples = 6\nvalue = [5, 1]"] ;
38 -> 39 ;
40 [label="gini = 0.444\nsamples = 3\nvalue = [2, 1]"] ;
38 -> 40 ;
41 [label="pclass=2nd <= 0.5\ngini = 0.245\nsamples = 7\nvalue = [6, 1]"] ;
37 -> 41 ;
42 [label="gini = 0.32\nsamples = 5\nvalue = [4, 1]"] ;
41 -> 42 ;
43 [label="gini = 0.0\nsamples = 2\nvalue = [2, 0]"] ;
41 -> 43 ;
44 [label="age <= 41.5\ngini = 0.169\nsamples = 397\nvalue = [360, 37]"] ;
28 -> 44 ;
45 [label="age <= 40.5\ngini = 0.172\nsamples = 390\nvalue = [353, 37]"] ;
44 -> 45 ;
46 [label="age <= 36.5\ngini = 0.169\nsamples = 387\nvalue = [351, 36]"] ;
45 -> 46 ;
47 [label="age <= 35.5\ngini = 0.172\nsamples = 379\nvalue = [343, 36]"] ;
46 -> 47 ;
48 [label="age <= 31.597\ngini = 0.169\nsamples = 376\nvalue = [341, 35]"] ;
47 -> 48 ;
49 [label="age <= 28.5\ngini = 0.162\nsamples = 348\nvalue = [317, 31]"] ;
48 -> 49 ;
50 [label="pclass=3rd <= 0.5\ngini = 0.095\nsamples = 20\nvalue = [19, 1]"] ;
49 -> 50 ;
51 [label="age <= 26.5\ngini = 0.18\nsamples = 10\nvalue = [9, 1]"] ;
50 -> 51 ;
52 [label="gini = 0.32\nsamples = 5\nvalue = [4, 1]"] ;
51 -> 52 ;
53 [label="gini = 0.0\nsamples = 5\nvalue = [5, 0]"] ;
51 -> 53 ;
54 [label="gini = 0.0\nsamples = 10\nvalue = [10, 0]"] ;
50 -> 54 ;
55 [label="age <= 30.5\ngini = 0.166\nsamples = 328\nvalue = [298, 30]"] ;
49 -> 55 ;
56 [label="pclass=3rd <= 0.5\ngini = 0.291\nsamples = 17\nvalue = [14, 3]"] ;
55 -> 56 ;
57 [label="age <= 29.5\ngini = 0.18\nsamples = 10\nvalue = [9, 1]"] ;
56 -> 57 ;
58 [label="gini = 0.0\nsamples = 2\nvalue = [2, 0]"] ;
57 -> 58 ;
59 [label="gini = 0.219\nsamples = 8\nvalue = [7, 1]"] ;
57 -> 59 ;
60 [label="age <= 29.5\ngini = 0.408\nsamples = 7\nvalue = [5, 2]"] ;
56 -> 60 ;
61 [label="gini = 0.444\nsamples = 3\nvalue = [2, 1]"] ;
60 -> 61 ;
62 [label="gini = 0.375\nsamples = 4\nvalue = [3, 1]"] ;
60 -> 62 ;
63 [label="pclass=2nd <= 0.5\ngini = 0.159\nsamples = 311\nvalue = [284, 27]"] ;
55 -> 63 ;
64 [label="age <= 31.097\ngini = 0.164\nsamples = 277\nvalue = [252, 25]"] ;
63 -> 64 ;
65 [label="gini = 0.0\nsamples = 1\nvalue = [1, 0]"] ;
64 -> 65 ;
66 [label="gini = 0.165\nsamples = 276\nvalue = [251, 25]"] ;
64 -> 66 ;
67 [label="age <= 31.097\ngini = 0.111\nsamples = 34\nvalue = [32, 2]"] ;
63 -> 67 ;
68 [label="gini = 0.0\nsamples = 1\nvalue = [1, 0]"] ;
67 -> 68 ;
69 [label="gini = 0.114\nsamples = 33\nvalue = [31, 2]"] ;
67 -> 69 ;
70 [label="age <= 32.5\ngini = 0.245\nsamples = 28\nvalue = [24, 4]"] ;
48 -> 70 ;
71 [label="pclass=2nd <= 0.5\ngini = 0.42\nsamples = 10\nvalue = [7, 3]"] ;
70 -> 71 ;
72 [label="gini = 0.32\nsamples = 5\nvalue = [4, 1]"] ;
71 -> 72 ;
73 [label="gini = 0.48\nsamples = 5\nvalue = [3, 2]"] ;
71 -> 73 ;
74 [label="pclass=3rd <= 0.5\ngini = 0.105\nsamples = 18\nvalue = [17, 1]"] ;
70 -> 74 ;
75 [label="age <= 34.5\ngini = 0.18\nsamples = 10\nvalue = [9, 1]"] ;
74 -> 75 ;
76 [label="age <= 33.5\ngini = 0.278\nsamples = 6\nvalue = [5, 1]"] ;
75 -> 76 ;
77 [label="gini = 0.0\nsamples = 1\nvalue = [1, 0]"] ;
76 -> 77 ;
78 [label="gini = 0.32\nsamples = 5\nvalue = [4, 1]"] ;
76 -> 78 ;
79 [label="gini = 0.0\nsamples = 4\nvalue = [4, 0]"] ;
75 -> 79 ;
80 [label="gini = 0.0\nsamples = 8\nvalue = [8, 0]"] ;
74 -> 80 ;
81 [label="pclass=2nd <= 0.5\ngini = 0.444\nsamples = 3\nvalue = [2, 1]"] ;
47 -> 81 ;
82 [label="gini = 0.0\nsamples = 1\nvalue = [0, 1]"] ;
81 -> 82 ;
83 [label="gini = 0.0\nsamples = 2\nvalue = [2, 0]"] ;
81 -> 83 ;
84 [label="gini = 0.0\nsamples = 8\nvalue = [8, 0]"] ;
46 -> 84 ;
85 [label="pclass=2nd <= 0.5\ngini = 0.444\nsamples = 3\nvalue = [2, 1]"] ;
45 -> 85 ;
86 [label="gini = 0.0\nsamples = 1\nvalue = [1, 0]"] ;
85 -> 86 ;
87 [label="gini = 0.5\nsamples = 2\nvalue = [1, 1]"] ;
85 -> 87 ;
88 [label="gini = 0.0\nsamples = 7\nvalue = [7, 0]"] ;
44 -> 88 ;
89 [label="gini = 0.5\nsamples = 2\nvalue = [1, 1]"] ;
15 -> 89 ;
90 [label="gini = 0.0\nsamples = 13\nvalue = [13, 0]"] ;
14 -> 90 ;
91 [label="age <= 54.5\ngini = 0.453\nsamples = 121\nvalue = [79, 42]"] ;
13 -> 91 ;
92 [label="age <= 51.5\ngini = 0.478\nsamples = 101\nvalue = [61, 40]"] ;
91 -> 92 ;
93 [label="age <= 28.5\ngini = 0.473\nsamples = 99\nvalue = [61, 38]"] ;
92 -> 93 ;
94 [label="age <= 18.0\ngini = 0.494\nsamples = 18\nvalue = [8, 10]"] ;
93 -> 94 ;
95 [label="gini = 0.0\nsamples = 1\nvalue = [0, 1]"] ;
94 -> 95 ;
96 [label="age <= 20.0\ngini = 0.498\nsamples = 17\nvalue = [8, 9]"] ;
94 -> 96 ;
97 [label="gini = 0.0\nsamples = 1\nvalue = [1, 0]"] ;
96 -> 97 ;
98 [label="age <= 26.5\ngini = 0.492\nsamples = 16\nvalue = [7, 9]"] ;
96 -> 98 ;
99 [label="age <= 24.5\ngini = 0.469\nsamples = 8\nvalue = [3, 5]"] ;
98 -> 99 ;
100 [label="age <= 23.5\ngini = 0.5\nsamples = 6\nvalue = [3, 3]"] ;
99 -> 100 ;
101 [label="age <= 22.0\ngini = 0.444\nsamples = 3\nvalue = [1, 2]"] ;
100 -> 101 ;
102 [label="gini = 0.5\nsamples = 2\nvalue = [1, 1]"] ;
101 -> 102 ;
103 [label="gini = 0.0\nsamples = 1\nvalue = [0, 1]"] ;
101 -> 103 ;
104 [label="gini = 0.444\nsamples = 3\nvalue = [2, 1]"] ;
100 -> 104 ;
105 [label="gini = 0.0\nsamples = 2\nvalue = [0, 2]"] ;
99 -> 105 ;
106 [label="age <= 27.5\ngini = 0.5\nsamples = 8\nvalue = [4, 4]"] ;
98 -> 106 ;
107 [label="gini = 0.5\nsamples = 4\nvalue = [2, 2]"] ;
106 -> 107 ;
108 [label="gini = 0.5\nsamples = 4\nvalue = [2, 2]"] ;
106 -> 108 ;
109 [label="age <= 30.5\ngini = 0.452\nsamples = 81\nvalue = [53, 28]"] ;
93 -> 109 ;
110 [label="gini = 0.0\nsamples = 5\nvalue = [5, 0]"] ;
109 -> 110 ;
111 [label="age <= 49.5\ngini = 0.465\nsamples = 76\nvalue = [48, 28]"] ;
109 -> 111 ;
112 [label="age <= 47.5\ngini = 0.473\nsamples = 73\nvalue = [45, 28]"] ;
111 -> 112 ;
113 [label="age <= 45.5\ngini = 0.457\nsamples = 65\nvalue = [42, 23]"] ;
112 -> 113 ;
114 [label="age <= 33.5\ngini = 0.471\nsamples = 58\nvalue = [36, 22]"] ;
113 -> 114 ;
115 [label="age <= 32.5\ngini = 0.438\nsamples = 37\nvalue = [25, 12]"] ;
114 -> 115 ;
116 [label="age <= 31.097\ngini = 0.451\nsamples = 35\nvalue = [23, 12]"] ;
115 -> 116 ;
117 [label="gini = 0.5\nsamples = 4\nvalue = [2, 2]"] ;
116 -> 117 ;
118 [label="age <= 31.597\ngini = 0.437\nsamples = 31\nvalue = [21, 10]"] ;
116 -> 118 ;
119 [label="gini = 0.428\nsamples = 29\nvalue = [20, 9]"] ;
118 -> 119 ;
120 [label="gini = 0.5\nsamples = 2\nvalue = [1, 1]"] ;
118 -> 120 ;
121 [label="gini = 0.0\nsamples = 2\nvalue = [2, 0]"] ;
115 -> 121 ;
122 [label="age <= 35.5\ngini = 0.499\nsamples = 21\nvalue = [11, 10]"] ;
114 -> 122 ;
123 [label="gini = 0.0\nsamples = 2\nvalue = [0, 2]"] ;
122 -> 123 ;
124 [label="age <= 39.5\ngini = 0.488\nsamples = 19\nvalue = [11, 8]"] ;
122 -> 124 ;
125 [label="age <= 37.0\ngini = 0.494\nsamples = 9\nvalue = [4, 5]"] ;
124 -> 125 ;
126 [label="gini = 0.48\nsamples = 5\nvalue = [2, 3]"] ;
125 -> 126 ;
127 [label="age <= 38.5\ngini = 0.5\nsamples = 4\nvalue = [2, 2]"] ;
125 -> 127 ;
128 [label="gini = 0.5\nsamples = 2\nvalue = [1, 1]"] ;
127 -> 128 ;
129 [label="gini = 0.5\nsamples = 2\nvalue = [1, 1]"] ;
127 -> 129 ;
130 [label="age <= 41.5\ngini = 0.42\nsamples = 10\nvalue = [7, 3]"] ;
124 -> 130 ;
131 [label="gini = 0.0\nsamples = 3\nvalue = [3, 0]"] ;
130 -> 131 ;
132 [label="age <= 43.0\ngini = 0.49\nsamples = 7\nvalue = [4, 3]"] ;
130 -> 132 ;
133 [label="gini = 0.444\nsamples = 3\nvalue = [2, 1]"] ;
132 -> 133 ;
134 [label="age <= 44.5\ngini = 0.5\nsamples = 4\nvalue = [2, 2]"] ;
132 -> 134 ;
135 [label="gini = 0.5\nsamples = 2\nvalue = [1, 1]"] ;
134 -> 135 ;
136 [label="gini = 0.5\nsamples = 2\nvalue = [1, 1]"] ;
134 -> 136 ;
137 [label="age <= 46.5\ngini = 0.245\nsamples = 7\nvalue = [6, 1]"] ;
113 -> 137 ;
138 [label="gini = 0.0\nsamples = 3\nvalue = [3, 0]"] ;
137 -> 138 ;
139 [label="gini = 0.375\nsamples = 4\nvalue = [3, 1]"] ;
137 -> 139 ;
140 [label="age <= 48.5\ngini = 0.469\nsamples = 8\nvalue = [3, 5]"] ;
112 -> 140 ;
141 [label="gini = 0.444\nsamples = 3\nvalue = [1, 2]"] ;
140 -> 141 ;
142 [label="gini = 0.48\nsamples = 5\nvalue = [2, 3]"] ;
140 -> 142 ;
143 [label="gini = 0.0\nsamples = 3\nvalue = [3, 0]"] ;
111 -> 143 ;
144 [label="gini = 0.0\nsamples = 2\nvalue = [0, 2]"] ;
92 -> 144 ;
145 [label="age <= 60.5\ngini = 0.18\nsamples = 20\nvalue = [18, 2]"] ;
91 -> 145 ;
146 [label="age <= 59.0\ngini = 0.298\nsamples = 11\nvalue = [9, 2]"] ;
145 -> 146 ;
147 [label="age <= 56.5\ngini = 0.198\nsamples = 9\nvalue = [8, 1]"] ;
146 -> 147 ;
148 [label="age <= 55.5\ngini = 0.32\nsamples = 5\nvalue = [4, 1]"] ;
147 -> 148 ;
149 [label="gini = 0.0\nsamples = 2\nvalue = [2, 0]"] ;
148 -> 149 ;
150 [label="gini = 0.444\nsamples = 3\nvalue = [2, 1]"] ;
148 -> 150 ;
151 [label="gini = 0.0\nsamples = 4\nvalue = [4, 0]"] ;
147 -> 151 ;
152 [label="gini = 0.5\nsamples = 2\nvalue = [1, 1]"] ;
146 -> 152 ;
153 [label="gini = 0.0\nsamples = 9\nvalue = [9, 0]"] ;
145 -> 153 ;
154 [label="pclass=3rd <= 0.5\ngini = 0.441\nsamples = 357\nvalue = [117, 240]"] ;
0 -> 154 [labeldistance=2.5, labelangle=-45, headlabel="False"] ;
155 [label="age <= 2.5\ngini = 0.143\nsamples = 194\nvalue = [15, 179]"] ;
154 -> 155 ;
156 [label="pclass=1st <= 0.5\ngini = 0.444\nsamples = 3\nvalue = [1, 2]"] ;
155 -> 156 ;
157 [label="gini = 0.0\nsamples = 2\nvalue = [0, 2]"] ;
156 -> 157 ;
158 [label="gini = 0.0\nsamples = 1\nvalue = [1, 0]"] ;
156 -> 158 ;
159 [label="age <= 25.5\ngini = 0.136\nsamples = 191\nvalue = [14, 177]"] ;
155 -> 159 ;
160 [label="age <= 18.5\ngini = 0.044\nsamples = 44\nvalue = [1, 43]"] ;
159 -> 160 ;
161 [label="age <= 17.5\ngini = 0.111\nsamples = 17\nvalue = [1, 16]"] ;
160 -> 161 ;
162 [label="gini = 0.0\nsamples = 14\nvalue = [0, 14]"] ;
161 -> 162 ;
163 [label="pclass=2nd <= 0.5\ngini = 0.444\nsamples = 3\nvalue = [1, 2]"] ;
161 -> 163 ;
164 [label="gini = 0.0\nsamples = 2\nvalue = [0, 2]"] ;
163 -> 164 ;
165 [label="gini = 0.0\nsamples = 1\nvalue = [1, 0]"] ;
163 -> 165 ;
166 [label="gini = 0.0\nsamples = 27\nvalue = [0, 27]"] ;
160 -> 166 ;
167 [label="age <= 30.5\ngini = 0.161\nsamples = 147\nvalue = [13, 134]"] ;
159 -> 167 ;
168 [label="age <= 29.5\ngini = 0.291\nsamples = 17\nvalue = [3, 14]"] ;
167 -> 168 ;
169 [label="age <= 26.5\ngini = 0.153\nsamples = 12\nvalue = [1, 11]"] ;
168 -> 169 ;
170 [label="pclass=1st <= 0.5\ngini = 0.375\nsamples = 4\nvalue = [1, 3]"] ;
169 -> 170 ;
171 [label="gini = 0.444\nsamples = 3\nvalue = [1, 2]"] ;
170 -> 171 ;
172 [label="gini = 0.0\nsamples = 1\nvalue = [0, 1]"] ;
170 -> 172 ;
173 [label="gini = 0.0\nsamples = 8\nvalue = [0, 8]"] ;
169 -> 173 ;
174 [label="gini = 0.48\nsamples = 5\nvalue = [2, 3]"] ;
168 -> 174 ;
175 [label="age <= 62.5\ngini = 0.142\nsamples = 130\nvalue = [10, 120]"] ;
167 -> 175 ;
176 [label="age <= 57.5\ngini = 0.133\nsamples = 126\nvalue = [9, 117]"] ;
175 -> 176 ;
177 [label="age <= 56.5\ngini = 0.141\nsamples = 118\nvalue = [9, 109]"] ;
176 -> 177 ;
178 [label="age <= 50.5\ngini = 0.127\nsamples = 117\nvalue = [8, 109]"] ;
177 -> 178 ;
179 [label="age <= 49.5\ngini = 0.135\nsamples = 110\nvalue = [8, 102]"] ;
178 -> 179 ;
180 [label="age <= 44.5\ngini = 0.127\nsamples = 103\nvalue = [7, 96]"] ;
179 -> 180 ;
181 [label="age <= 43.5\ngini = 0.143\nsamples = 90\nvalue = [7, 83]"] ;
180 -> 181 ;
182 [label="age <= 38.5\ngini = 0.127\nsamples = 88\nvalue = [6, 82]"] ;
181 -> 182 ;
183 [label="age <= 37.0\ngini = 0.147\nsamples = 75\nvalue = [6, 69]"] ;
182 -> 183 ;
184 [label="pclass=1st <= 0.5\ngini = 0.128\nsamples = 73\nvalue = [5, 68]"] ;
183 -> 184 ;
185 [label="age <= 31.597\ngini = 0.062\nsamples = 31\nvalue = [1, 30]"] ;
184 -> 185 ;
186 [label="age <= 31.097\ngini = 0.1\nsamples = 19\nvalue = [1, 18]"] ;
185 -> 186 ;
187 [label="gini = 0.0\nsamples = 1\nvalue = [0, 1]"] ;
186 -> 187 ;
188 [label="gini = 0.105\nsamples = 18\nvalue = [1, 17]"] ;
186 -> 188 ;
189 [label="gini = 0.0\nsamples = 12\nvalue = [0, 12]"] ;
185 -> 189 ;
190 [label="age <= 35.5\ngini = 0.172\nsamples = 42\nvalue = [4, 38]"] ;
184 -> 190 ;
191 [label="age <= 32.097\ngini = 0.145\nsamples = 38\nvalue = [3, 35]"] ;
190 -> 191 ;
192 [label="age <= 31.097\ngini = 0.165\nsamples = 33\nvalue = [3, 30]"] ;
191 -> 192 ;
193 [label="gini = 0.0\nsamples = 2\nvalue = [0, 2]"] ;
192 -> 193 ;
194 [label="gini = 0.175\nsamples = 31\nvalue = [3, 28]"] ;
192 -> 194 ;
195 [label="gini = 0.0\nsamples = 5\nvalue = [0, 5]"] ;
191 -> 195 ;
196 [label="gini = 0.375\nsamples = 4\nvalue = [1, 3]"] ;
190 -> 196 ;
197 [label="pclass=1st <= 0.5\ngini = 0.5\nsamples = 2\nvalue = [1, 1]"] ;
183 -> 197 ;
198 [label="gini = 0.0\nsamples = 1\nvalue = [1, 0]"] ;
197 -> 198 ;
199 [label="gini = 0.0\nsamples = 1\nvalue = [0, 1]"] ;
197 -> 199 ;
200 [label="gini = 0.0\nsamples = 13\nvalue = [0, 13]"] ;
182 -> 200 ;
201 [label="pclass=2nd <= 0.5\ngini = 0.5\nsamples = 2\nvalue = [1, 1]"] ;
181 -> 201 ;
202 [label="gini = 0.0\nsamples = 1\nvalue = [0, 1]"] ;
201 -> 202 ;
203 [label="gini = 0.0\nsamples = 1\nvalue = [1, 0]"] ;
201 -> 203 ;
204 [label="gini = 0.0\nsamples = 13\nvalue = [0, 13]"] ;
180 -> 204 ;
205 [label="pclass=2nd <= 0.5\ngini = 0.245\nsamples = 7\nvalue = [1, 6]"] ;
179 -> 205 ;
206 [label="gini = 0.375\nsamples = 4\nvalue = [1, 3]"] ;
205 -> 206 ;
207 [label="gini = 0.0\nsamples = 3\nvalue = [0, 3]"] ;
205 -> 207 ;
208 [label="gini = 0.0\nsamples = 7\nvalue = [0, 7]"] ;
178 -> 208 ;
209 [label="gini = 0.0\nsamples = 1\nvalue = [1, 0]"] ;
177 -> 209 ;
210 [label="gini = 0.0\nsamples = 8\nvalue = [0, 8]"] ;
176 -> 210 ;
211 [label="age <= 63.5\ngini = 0.375\nsamples = 4\nvalue = [1, 3]"] ;
175 -> 211 ;
212 [label="gini = 0.5\nsamples = 2\nvalue = [1, 1]"] ;
211 -> 212 ;
213 [label="gini = 0.0\nsamples = 2\nvalue = [0, 2]"] ;
211 -> 213 ;
214 [label="age <= 5.5\ngini = 0.468\nsamples = 163\nvalue = [102, 61]"] ;
154 -> 214 ;
215 [label="gini = 0.0\nsamples = 4\nvalue = [0, 4]"] ;
214 -> 215 ;
216 [label="age <= 13.5\ngini = 0.46\nsamples = 159\nvalue = [102, 57]"] ;
214 -> 216 ;
217 [label="gini = 0.0\nsamples = 4\nvalue = [4, 0]"] ;
216 -> 217 ;
218 [label="age <= 19.0\ngini = 0.465\nsamples = 155\nvalue = [98, 57]"] ;
216 -> 218 ;
219 [label="age <= 16.5\ngini = 0.346\nsamples = 9\nvalue = [2, 7]"] ;
218 -> 219 ;
220 [label="gini = 0.0\nsamples = 2\nvalue = [0, 2]"] ;
219 -> 220 ;
221 [label="age <= 17.5\ngini = 0.408\nsamples = 7\nvalue = [2, 5]"] ;
219 -> 221 ;
222 [label="gini = 0.444\nsamples = 3\nvalue = [1, 2]"] ;
221 -> 222 ;
223 [label="gini = 0.375\nsamples = 4\nvalue = [1, 3]"] ;
221 -> 223 ;
224 [label="age <= 32.5\ngini = 0.45\nsamples = 146\nvalue = [96, 50]"] ;
218 -> 224 ;
225 [label="age <= 21.5\ngini = 0.439\nsamples = 135\nvalue = [91, 44]"] ;
224 -> 225 ;
226 [label="gini = 0.0\nsamples = 3\nvalue = [3, 0]"] ;
225 -> 226 ;
227 [label="age <= 30.597\ngini = 0.444\nsamples = 132\nvalue = [88, 44]"] ;
225 -> 227 ;
228 [label="age <= 29.0\ngini = 0.494\nsamples = 9\nvalue = [4, 5]"] ;
227 -> 228 ;
229 [label="age <= 25.5\ngini = 0.49\nsamples = 7\nvalue = [4, 3]"] ;
228 -> 229 ;
230 [label="age <= 23.0\ngini = 0.48\nsamples = 5\nvalue = [2, 3]"] ;
229 -> 230 ;
231 [label="gini = 0.444\nsamples = 3\nvalue = [1, 2]"] ;
230 -> 231 ;
232 [label="gini = 0.5\nsamples = 2\nvalue = [1, 1]"] ;
230 -> 232 ;
233 [label="gini = 0.0\nsamples = 2\nvalue = [2, 0]"] ;
229 -> 233 ;
234 [label="gini = 0.0\nsamples = 2\nvalue = [0, 2]"] ;
228 -> 234 ;
235 [label="age <= 31.597\ngini = 0.433\nsamples = 123\nvalue = [84, 39]"] ;
227 -> 235 ;
236 [label="gini = 0.435\nsamples = 122\nvalue = [83, 39]"] ;
235 -> 236 ;
237 [label="gini = 0.0\nsamples = 1\nvalue = [1, 0]"] ;
235 -> 237 ;
238 [label="age <= 36.5\ngini = 0.496\nsamples = 11\nvalue = [5, 6]"] ;
224 -> 238 ;
239 [label="gini = 0.0\nsamples = 4\nvalue = [0, 4]"] ;
238 -> 239 ;
240 [label="age <= 42.5\ngini = 0.408\nsamples = 7\nvalue = [5, 2]"] ;
238 -> 240 ;
241 [label="age <= 38.5\ngini = 0.32\nsamples = 5\nvalue = [4, 1]"] ;
240 -> 241 ;
242 [label="age <= 37.5\ngini = 0.444\nsamples = 3\nvalue = [2, 1]"] ;
241 -> 242 ;
243 [label="gini = 0.0\nsamples = 1\nvalue = [1, 0]"] ;
242 -> 243 ;
244 [label="gini = 0.5\nsamples = 2\nvalue = [1, 1]"] ;
242 -> 244 ;
245 [label="gini = 0.0\nsamples = 2\nvalue = [2, 0]"] ;
241 -> 245 ;
246 [label="gini = 0.5\nsamples = 2\nvalue = [1, 1]"] ;
240 -> 246 ;
}